3.066937625408172607e-01
1.197812035679817200e-01
3.603374958038330078e-01
2.083650827407836914e-01
3.290269076824188232e-01
3.378266990184783936e-01
2.393229752779006958e-01
1.986086368560791016e-01
2.651389241218566895e-01
2.813011109828948975e-01
2.893064022064208984e-01
1.276082992553710938e-01
1.498231887817382812e-01
2.278330922126770020e-01
2.620088756084442139e-01
3.872040510177612305e-01
3.093551695346832275e-01
3.187287449836730957e-01
8.694037050008773804e-02
1.384571194648742676e-01
-1.759622618556022644e-02
2.715019583702087402e-01
2.058552056550979614e-01
9.620501101016998291e-02
2.961700856685638428e-01
2.356310635805130005e-01
3.520125150680541992e-01
2.934519350528717041e-01
3.581525385379791260e-01
1.250792592763900757e-01
2.897340953350067139e-01
2.920650541782379150e-01
1.619035899639129639e-01
1.983059793710708618e-01
2.046649456024169922e-01
2.281864434480667114e-01
1.845236122608184814e-01
2.048717737197875977e-01
2.013085335493087769e-01
1.095087155699729919e-01
2.740662097930908203e-01
1.135179921984672546e-01
5.861490368843078613e-01
3.037362396717071533e-01
3.891778588294982910e-01
6.694668531417846680e-02
6.730535626411437988e-02
1.801745966076850891e-02
3.837799429893493652e-01
9.107600152492523193e-02
7.822874933481216431e-02
2.862029671669006348e-01
1.212615706026554108e-02
7.652693241834640503e-02
1.187846735119819641e-01
2.092662602663040161e-01
2.728161811828613281e-01
1.391387432813644409e-01
3.060808032751083374e-02
1.701199561357498169e-01
3.786439895629882812e-01
2.058061212301254272e-01
7.883320003747940063e-02
8.479724079370498657e-02
1.553614884614944458e-01
2.611808180809020996e-01
2.135673016309738159e-01
3.122934699058532715e-01
2.691843807697296143e-01
9.117066115140914917e-02
2.472350597381591797e-01
2.366136759519577026e-01
4.136437922716140747e-02
-4.977972805500030518e-02
3.046253323554992676e-01
3.883686065673828125e-01
2.945946455001831055e-01
5.503752455115318298e-02
1.966028958559036255e-01
1.203597895801067352e-02
2.329326868057250977e-01
1.107384860515594482e-01
2.423139214515686035e-01
6.286511570215225220e-02
1.553975641727447510e-01
1.930355578660964966e-01
2.479759603738784790e-01
1.748734563589096069e-01
2.083785533905029297e-01
2.000432461500167847e-01
3.421745300292968750e-01
1.295104622840881348e-01
3.443300724029541016e-01
2.613384127616882324e-01
1.325034648180007935e-01
2.375620454549789429e-01
2.160487174987792969e-01
3.448075950145721436e-01
3.534293770790100098e-01
3.219639658927917480e-01
3.937571942806243896e-01
3.726243600249290466e-02
2.022940963506698608e-01
2.445193380117416382e-01
1.612163782119750977e-01
2.477661967277526855e-01
1.197503358125686646e-01
5.559689924120903015e-02
1.445138305425643921e-01
5.691223591566085815e-02
1.114979833364486694e-01
3.921064734458923340e-01
4.325214922428131104e-01
3.231531381607055664e-01
1.210941281169652939e-02
2.844578623771667480e-01
2.647599875926971436e-01
9.276849031448364258e-02
8.074726909399032593e-02
2.272759377956390381e-01
2.857675850391387939e-01
7.195910811424255371e-02
3.321594744920730591e-02
2.367260903120040894e-01
3.607601821422576904e-01
7.257086783647537231e-02
1.337227523326873779e-01
3.310101628303527832e-01
3.462398648262023926e-01
1.153734475374221802e-01
4.324924349784851074e-01
7.081597298383712769e-02
5.285093188285827637e-01
6.196121126413345337e-02
2.120826393365859985e-01
3.782378882169723511e-02
3.185990154743194580e-01
3.245941698551177979e-01
5.472329258918762207e-01
2.225178852677345276e-02
3.000801205635070801e-01
1.740640029311180115e-02
1.411650478839874268e-01
2.184416949748992920e-01
3.008300662040710449e-01
2.905495166778564453e-01
3.413016796112060547e-01
2.145244032144546509e-01
2.206640243530273438e-01
4.718286097049713135e-01
2.227212190628051758e-01
2.760174572467803955e-01
9.597432613372802734e-02
3.359860926866531372e-02
3.782524466514587402e-01
3.109773620963096619e-02
4.803089797496795654e-01
2.623867988586425781e-01
4.868359863758087158e-02
1.094653084874153137e-01
5.159711465239524841e-02
2.153045237064361572e-01
2.737220525741577148e-01
7.183347828686237335e-03
1.486636251211166382e-01
5.399545654654502869e-02
1.333802640438079834e-01
1.788505315780639648e-01
2.702036798000335693e-01
1.903071850538253784e-01
1.182144507765769958e-01
1.318140625953674316e-01
3.682132065296173096e-01
3.843737840652465820e-01
1.076869741082191467e-01
2.827273011207580566e-01
2.987812161445617676e-01
7.465640455484390259e-02
2.032802253961563110e-01
2.270064055919647217e-01
4.386887326836585999e-02
2.557109594345092773e-01
2.270069718360900879e-01
1.036885380744934082e-01
6.030711531639099121e-01
1.621122062206268311e-01
2.092950791120529175e-01
2.945774793624877930e-01
3.388916328549385071e-02
5.828313902020454407e-02
7.774852216243743896e-02
5.500774085521697998e-02
3.382516279816627502e-02
5.283314585685729980e-01
2.280686944723129272e-01
2.653931677341461182e-01
3.305772319436073303e-02
3.207715153694152832e-01
3.235588371753692627e-01
3.155769705772399902e-01
3.679793477058410645e-01
3.995033502578735352e-01
2.260032594203948975e-01
2.140620648860931396e-01
2.222822308540344238e-01
3.322254717350006104e-01
3.951366841793060303e-01
6.072752922773361206e-02
4.013631492853164673e-02
-1.639538444578647614e-02
2.084521949291229248e-01
1.172343045473098755e-01
1.035905256867408752e-01
3.000726103782653809e-01
-2.282478287816047668e-02
2.065402120351791382e-01
1.717678159475326538e-01
-1.733965426683425903e-02
6.786678731441497803e-02
1.493472512811422348e-02
8.842080086469650269e-02
2.793457508087158203e-01
6.122903153300285339e-02
-1.065906323492527008e-02
1.791133880615234375e-01
-6.285516172647476196e-02
2.837070822715759277e-01
8.973567187786102295e-02
2.387538552284240723e-02
6.313431262969970703e-02
3.311249017715454102e-01
1.949740648269653320e-01
1.402976512908935547e-01
5.574592947959899902e-01
8.887879550457000732e-02
9.238807857036590576e-02
3.301270902156829834e-01
2.968225479125976562e-01
1.714508980512619019e-01
8.083806186914443970e-02
9.213901311159133911e-02
4.746245965361595154e-02
2.106023281812667847e-01
3.767270222306251526e-02
8.586850762367248535e-02
1.493330858647823334e-02
7.799778133630752563e-02
2.519049309194087982e-02
3.652289509773254395e-01
1.607179343700408936e-01
4.027603939175605774e-02
1.180385053157806396e-01
2.905893325805664062e-02
7.124191522598266602e-02
7.527846097946166992e-02
3.724421560764312744e-02
6.324399262666702271e-03
-5.895218625664710999e-02
4.067769274115562439e-02
-8.253780007362365723e-02
7.243997417390346527e-03
2.787106931209564209e-01
6.267676502466201782e-02
2.282156199216842651e-01
1.579002588987350464e-01
3.641090989112854004e-01
-4.372243210673332214e-02
1.239810287952423096e-01
1.896096020936965942e-02
1.366590559482574463e-01
3.069022893905639648e-01
-7.783950865268707275e-02
1.564560234546661377e-01
-6.154518574476242065e-02
-7.117648422718048096e-02
2.271548062562942505e-01
8.193802088499069214e-02
3.424929454922676086e-02
-4.904547333717346191e-02
4.412279278039932251e-02
1.220621075481176376e-02
1.322217136621475220e-01
1.688705980777740479e-01
5.395709723234176636e-02
8.379462361335754395e-02
1.519287228584289551e-01
-6.825762242078781128e-02
3.136399984359741211e-01
-5.776268080808222294e-04
2.054245769977569580e-02
1.101160794496536255e-01
3.238188624382019043e-01
1.263397336006164551e-01
6.072191521525382996e-02
-2.932885661721229553e-02
-7.460308074951171875e-02
7.878107577562332153e-02
2.296208739280700684e-01
1.166947185993194580e-01
2.196463644504547119e-01
2.563851773738861084e-01
4.615243524312973022e-02
2.774149477481842041e-01
3.031498193740844727e-02
3.898813575506210327e-02
-8.306010626256465912e-03
-2.526935562491416931e-02
-1.971426904201507568e-01
3.304975107312202454e-02
4.847638681530952454e-02
9.289647638797760010e-02
2.025843113660812378e-01
7.747434079647064209e-02
1.218648478388786316e-01
3.878797218203544617e-02
3.325552865862846375e-02
1.298460271209478378e-02
2.115397900342941284e-02
2.402145601809024811e-02
-1.201257854700088501e-01
3.328514695167541504e-01
-2.749045751988887787e-02
1.993297785520553589e-02
2.079487740993499756e-01
2.595486640930175781e-01
2.068882994353771210e-02
2.657915949821472168e-01
-4.114161492907442153e-05
4.729309305548667908e-02
1.145875230431556702e-01
1.578793525695800781e-01
1.740489900112152100e-01
3.548304736614227295e-02
-3.839997202157974243e-02
-9.647097438573837280e-03
2.891137450933456421e-02
-1.007352769374847412e-02
3.360968232154846191e-01
3.835801035165786743e-03
5.513618141412734985e-02
1.579503566026687622e-01
2.674830146133899689e-02
1.452854871749877930e-01
1.731792837381362915e-01
2.910264432430267334e-01
2.018922567367553711e-01
2.058352828025817871e-01
2.091644108295440674e-01
9.573200717568397522e-03
1.683781296014785767e-01
3.785471618175506592e-01
-1.853621564805507660e-02
9.539519250392913818e-02
2.399348840117454529e-02
3.877776861190795898e-01
-1.315621286630630493e-01
4.868050292134284973e-02
3.075456321239471436e-01
4.453784599900245667e-02
1.133802905678749084e-01
4.094362631440162659e-02
2.537625432014465332e-01
1.318781524896621704e-01
1.472243107855319977e-02
2.129686474800109863e-01
1.066181063652038574e-01
1.813529729843139648e-01
1.842364817857742310e-01
2.913620173931121826e-01
2.275650575757026672e-02
1.553554236888885498e-01
-1.435606777667999268e-01
6.580329686403274536e-02
2.882763743400573730e-01
2.264790534973144531e-01
-8.090995252132415771e-02
2.120790332555770874e-01
-2.331063896417617798e-02
2.121224701404571533e-01
5.781672149896621704e-02
4.012571275234222412e-02
6.223700195550918579e-02
-7.051928434520959854e-03
-1.127319503575563431e-02
-1.298097311519086361e-03
1.581287384033203125e-01
-1.330730170011520386e-01
2.027743905782699585e-01
2.570379525423049927e-02
1.567017734050750732e-01
9.703873842954635620e-02
4.275396466255187988e-02
7.638034224510192871e-02
1.038517057895660400e-01
1.199764683842658997e-01
7.499686628580093384e-02
4.362427815794944763e-02
1.328087151050567627e-01
7.061917334794998169e-02
2.273975610733032227e-01
3.427092358469963074e-02
-7.278436422348022461e-02
-1.829418726265430450e-02
-2.606282941997051239e-02
2.150975912809371948e-02
-5.735691264271736145e-02
-3.321594744920730591e-02
-4.127534106373786926e-02
-6.748570501804351807e-02
-7.657644152641296387e-02
2.691127918660640717e-02
-7.212370634078979492e-02
-5.176030844449996948e-02
-6.827098131179809570e-02
5.634477362036705017e-02
-3.530252724885940552e-02
-2.997421287000179291e-02
-7.994406856596469879e-03
-8.049685508012771606e-02
-5.410823971033096313e-02
-6.133878603577613831e-02
-7.123401761054992676e-02
-1.005328167229890823e-02
-1.168672591447830200e-01
2.135285548865795135e-02
-4.555516690015792847e-02
6.535788532346487045e-03
7.920385338366031647e-03
-6.091124564409255981e-02
-1.392651945352554321e-01
3.462901338934898376e-02
-8.171238005161285400e-02
-9.202696382999420166e-02
-1.426337212324142456e-01
-7.921291887760162354e-02
-5.363062396645545959e-02
-7.598119229078292847e-02
-8.440507203340530396e-02
-2.296244166791439056e-02
-9.609843045473098755e-02
-5.217647179961204529e-02
-6.087126582860946655e-02
-1.202903091907501221e-01
-1.289105601608753204e-02
-1.580294780433177948e-02
2.463057264685630798e-02
-8.242144435644149780e-02
-7.992202043533325195e-02
-3.046209923923015594e-02
-1.732855336740612984e-03
-8.839533478021621704e-02
-4.463260527700185776e-03
-7.784393429756164551e-02
-9.590742737054824829e-02
-1.066456362605094910e-01
-6.340938620269298553e-03
-6.717074662446975708e-03
-8.602059632539749146e-02
-9.870265424251556396e-02
-3.452680632472038269e-02
1.762872375547885895e-02
-7.132624275982379913e-03
-9.945896267890930176e-02
4.540792480111122131e-02
-1.182815153151750565e-02
-1.699543371796607971e-02
3.888064995408058167e-02
4.233164712786674500e-02
-1.170105952769517899e-02
1.864051446318626404e-02
-3.354656323790550232e-02
-2.841721288859844208e-02
-4.874230176210403442e-02
8.324669301509857178e-02
-4.842159152030944824e-02
-2.503386139869689941e-02
-2.629229053854942322e-02
-7.317721843719482422e-02
-3.608527127653360367e-03
-7.097622752189636230e-02
-2.492275647819042206e-02
-4.038497805595397949e-02
1.057178303599357605e-01
-9.437625855207443237e-02
-4.634397104382514954e-02
8.653759211301803589e-02
-1.464789360761642456e-02
-9.045359678566455841e-03
-2.392094768583774567e-02
-3.982389345765113831e-02
-3.299214318394660950e-02
1.274247001856565475e-02
1.592853514011949301e-04
-5.246298387646675110e-03
-7.894763257354497910e-05
-3.760090842843055725e-02
-9.096660465002059937e-02
-5.581740662455558777e-02
-3.209313750267028809e-02
-9.614704176783561707e-03
2.492920868098735809e-02
-9.873374551534652710e-02
-1.949470862746238708e-02
1.231454592198133469e-02
-1.115961521863937378e-01
1.933151623234152794e-03
-1.051941215991973877e-01
1.841554045677185059e-02
-7.254468649625778198e-02
-8.490935713052749634e-02
-8.793059736490249634e-02
-1.275987830013036728e-02
-1.723192781209945679e-01
2.742454782128334045e-02
4.852339997887611389e-02
-1.131384726613759995e-02
-3.836608678102493286e-02
-9.759935736656188965e-02
-9.061150997877120972e-02
-3.078023158013820648e-02
-4.271325841546058655e-02
-5.234876275062561035e-02
-3.153069317340850830e-02
-8.167641237378120422e-03
2.160153165459632874e-02
-5.509413778781890869e-02
-8.052536100149154663e-02
5.596819892525672913e-02
-4.775650799274444580e-02
9.830175898969173431e-03
-4.344305768609046936e-02
1.155248880386352539e-01
3.964518546126782894e-04
-7.562474906444549561e-02
-1.465356349945068359e-02
-1.086529120802879333e-01
3.307510167360305786e-02
5.777202174067497253e-02
-1.345834322273731232e-02
-7.342015951871871948e-02
-1.459591439925134182e-03
-8.134015649557113647e-02
-1.025599315762519836e-01
-3.130039945244789124e-02
-1.082995906472206116e-01
-7.124095410108566284e-02
1.485046930611133575e-02
-5.158380791544914246e-02
-3.751119226217269897e-02
-6.166747957468032837e-02
-4.849942773580551147e-02
9.525299072265625000e-02
3.591817989945411682e-02
-7.152145355939865112e-02
-4.661818221211433411e-02
-1.793005503714084625e-03
-4.583952575922012329e-02
-2.881214953958988190e-02
-8.007071167230606079e-02
-5.739545822143554688e-02
-7.219414412975311279e-02
6.814094632863998413e-02
-5.275466293096542358e-02
-8.341913670301437378e-02
5.659464746713638306e-03
-4.163852706551551819e-02
1.299213338643312454e-02
-5.628295615315437317e-02
-6.216697767376899719e-02
1.715023629367351532e-02
1.869131438434123993e-02
-5.221373215317726135e-02
-7.281503826379776001e-02
-1.259590983390808105e-01
-1.193056777119636536e-01
7.556533813476562500e-02
-2.143655205145478249e-03
3.860171511769294739e-02
-4.508618637919425964e-02
-1.618501096963882446e-01
-1.001722216606140137e-01
1.375952735543251038e-02
-1.753748767077922821e-02
-1.227832511067390442e-01
-2.168636023998260498e-02
-8.720326423645019531e-02
6.293641868978738785e-03
5.937179550528526306e-02
-7.495930045843124390e-02
-3.844139352440834045e-02
-1.122969835996627808e-01
-7.577054947614669800e-02
-6.953126937150955200e-02
4.331034049391746521e-02
-1.380368024110794067e-01
-3.789188340306282043e-02
-6.811776012182235718e-02
-2.811070345342159271e-02
1.128120231442153454e-03
9.461240842938423157e-03
3.066937625408172607e-01
1.197812035679817200e-01
3.603374958038330078e-01
2.083650827407836914e-01
3.290269076824188232e-01
3.378266990184783936e-01
2.393229752779006958e-01
1.986086368560791016e-01
2.651389241218566895e-01
2.813011109828948975e-01
2.893064022064208984e-01
1.276082992553710938e-01
1.498231887817382812e-01
2.278330922126770020e-01
2.620088756084442139e-01
3.872040510177612305e-01
3.093551695346832275e-01
3.187287449836730957e-01
8.694037050008773804e-02
1.384571194648742676e-01
-1.759622618556022644e-02
2.715019583702087402e-01
2.058552056550979614e-01
9.620501101016998291e-02
2.961700856685638428e-01
2.356310635805130005e-01
3.520125150680541992e-01
2.934519350528717041e-01
3.581525385379791260e-01
1.250792592763900757e-01
2.897340953350067139e-01
2.920650541782379150e-01
1.619035899639129639e-01
1.983059793710708618e-01
2.046649456024169922e-01
2.281864434480667114e-01
1.845236122608184814e-01
2.048717737197875977e-01
2.013085335493087769e-01
1.095087155699729919e-01
2.740662097930908203e-01
1.135179921984672546e-01
5.861490368843078613e-01
3.037362396717071533e-01
3.891778588294982910e-01
6.694668531417846680e-02
6.730535626411437988e-02
1.801745966076850891e-02
3.837799429893493652e-01
9.107600152492523193e-02
7.822874933481216431e-02
2.862029671669006348e-01
1.212615706026554108e-02
7.652693241834640503e-02
1.187846735119819641e-01
2.092662602663040161e-01
2.728161811828613281e-01
1.391387432813644409e-01
3.060808032751083374e-02
1.701199561357498169e-01
3.786439895629882812e-01
2.058061212301254272e-01
7.883320003747940063e-02
8.479724079370498657e-02
1.553614884614944458e-01
2.611808180809020996e-01
2.135673016309738159e-01
3.122934699058532715e-01
2.691843807697296143e-01
9.117066115140914917e-02
2.472350597381591797e-01
2.366136759519577026e-01
4.136437922716140747e-02
-4.977972805500030518e-02
3.046253323554992676e-01
3.883686065673828125e-01
2.945946455001831055e-01
5.503752455115318298e-02
1.966028958559036255e-01
1.203597895801067352e-02
2.329326868057250977e-01
1.107384860515594482e-01
2.423139214515686035e-01
6.286511570215225220e-02
1.553975641727447510e-01
1.930355578660964966e-01
2.479759603738784790e-01
1.748734563589096069e-01
2.083785533905029297e-01
2.000432461500167847e-01
3.421745300292968750e-01
1.295104622840881348e-01
3.443300724029541016e-01
2.613384127616882324e-01
1.325034648180007935e-01
2.375620454549789429e-01
2.160487174987792969e-01
3.448075950145721436e-01
3.534293770790100098e-01
3.219639658927917480e-01
3.937571942806243896e-01
3.726243600249290466e-02
2.022940963506698608e-01
2.445193380117416382e-01
1.612163782119750977e-01
2.477661967277526855e-01
1.197503358125686646e-01
5.559689924120903015e-02
1.445138305425643921e-01
5.691223591566085815e-02
1.114979833364486694e-01
3.921064734458923340e-01
4.325214922428131104e-01
3.231531381607055664e-01
1.210941281169652939e-02
2.844578623771667480e-01
2.647599875926971436e-01
9.276849031448364258e-02
8.074726909399032593e-02
2.272759377956390381e-01
2.857675850391387939e-01
7.195910811424255371e-02
3.321594744920730591e-02
2.367260903120040894e-01
3.607601821422576904e-01
7.257086783647537231e-02
1.337227523326873779e-01
3.310101628303527832e-01
3.462398648262023926e-01
1.153734475374221802e-01
4.324924349784851074e-01
7.081597298383712769e-02
5.285093188285827637e-01
6.196121126413345337e-02
2.120826393365859985e-01
3.782378882169723511e-02
3.185990154743194580e-01
3.245941698551177979e-01
5.472329258918762207e-01
2.225178852677345276e-02
3.000801205635070801e-01
1.740640029311180115e-02
1.411650478839874268e-01
2.184416949748992920e-01
3.008300662040710449e-01
2.905495166778564453e-01
3.413016796112060547e-01
2.145244032144546509e-01
2.206640243530273438e-01
4.718286097049713135e-01
2.227212190628051758e-01
2.760174572467803955e-01
9.597432613372802734e-02
3.359860926866531372e-02
3.782524466514587402e-01
3.109773620963096619e-02
4.803089797496795654e-01
2.623867988586425781e-01
4.868359863758087158e-02
1.094653084874153137e-01
5.159711465239524841e-02
2.153045237064361572e-01
2.737220525741577148e-01
7.183347828686237335e-03
1.486636251211166382e-01
5.399545654654502869e-02
1.333802640438079834e-01
1.788505315780639648e-01
2.702036798000335693e-01
1.903071850538253784e-01
1.182144507765769958e-01
1.318140625953674316e-01
3.682132065296173096e-01
3.843737840652465820e-01
1.076869741082191467e-01
2.827273011207580566e-01
2.987812161445617676e-01
7.465640455484390259e-02
2.032802253961563110e-01
2.270064055919647217e-01
4.386887326836585999e-02
2.557109594345092773e-01
2.270069718360900879e-01
1.036885380744934082e-01
6.030711531639099121e-01
1.621122062206268311e-01
2.092950791120529175e-01
2.945774793624877930e-01
3.388916328549385071e-02
5.828313902020454407e-02
7.774852216243743896e-02
5.500774085521697998e-02
3.382516279816627502e-02
5.283314585685729980e-01
2.280686944723129272e-01
2.653931677341461182e-01
3.305772319436073303e-02
3.207715153694152832e-01
3.235588371753692627e-01
3.155769705772399902e-01
3.679793477058410645e-01
3.995033502578735352e-01
2.260032594203948975e-01
2.140620648860931396e-01
2.222822308540344238e-01
3.322254717350006104e-01
3.951366841793060303e-01
6.072752922773361206e-02
4.013631492853164673e-02
-1.639538444578647614e-02
2.084521949291229248e-01
1.172343045473098755e-01
1.035905256867408752e-01
3.000726103782653809e-01
-2.282478287816047668e-02
2.065402120351791382e-01
1.717678159475326538e-01
-1.733965426683425903e-02
6.786678731441497803e-02
1.493472512811422348e-02
8.842080086469650269e-02
2.793457508087158203e-01
6.122903153300285339e-02
-1.065906323492527008e-02
1.791133880615234375e-01
-6.285516172647476196e-02
2.837070822715759277e-01
8.973567187786102295e-02
2.387538552284240723e-02
6.313431262969970703e-02
3.311249017715454102e-01
1.949740648269653320e-01
1.402976512908935547e-01
5.574592947959899902e-01
8.887879550457000732e-02
9.238807857036590576e-02
3.301270902156829834e-01
2.968225479125976562e-01
1.714508980512619019e-01
8.083806186914443970e-02
9.213901311159133911e-02
4.746245965361595154e-02
2.106023281812667847e-01
3.767270222306251526e-02
8.586850762367248535e-02
1.493330858647823334e-02
7.799778133630752563e-02
2.519049309194087982e-02
3.652289509773254395e-01
1.607179343700408936e-01
4.027603939175605774e-02
1.180385053157806396e-01
2.905893325805664062e-02
7.124191522598266602e-02
7.527846097946166992e-02
3.724421560764312744e-02
6.324399262666702271e-03
-5.895218625664710999e-02
4.067769274115562439e-02
-8.253780007362365723e-02
7.243997417390346527e-03
2.787106931209564209e-01
6.267676502466201782e-02
2.282156199216842651e-01
1.579002588987350464e-01
3.641090989112854004e-01
-4.372243210673332214e-02
1.239810287952423096e-01
1.896096020936965942e-02
1.366590559482574463e-01
3.069022893905639648e-01
-7.783950865268707275e-02
1.564560234546661377e-01
-6.154518574476242065e-02
-7.117648422718048096e-02
2.271548062562942505e-01
8.193802088499069214e-02
3.424929454922676086e-02
-4.904547333717346191e-02
4.412279278039932251e-02
1.220621075481176376e-02
1.322217136621475220e-01
1.688705980777740479e-01
5.395709723234176636e-02
8.379462361335754395e-02
1.519287228584289551e-01
-6.825762242078781128e-02
3.136399984359741211e-01
-5.776268080808222294e-04
2.054245769977569580e-02
1.101160794496536255e-01
3.238188624382019043e-01
1.263397336006164551e-01
6.072191521525382996e-02
-2.932885661721229553e-02
-7.460308074951171875e-02
7.878107577562332153e-02
2.296208739280700684e-01
1.166947185993194580e-01
2.196463644504547119e-01
2.563851773738861084e-01
4.615243524312973022e-02
2.774149477481842041e-01
3.031498193740844727e-02
3.898813575506210327e-02
-8.306010626256465912e-03
-2.526935562491416931e-02
-1.971426904201507568e-01
3.304975107312202454e-02
4.847638681530952454e-02
9.289647638797760010e-02
2.025843113660812378e-01
7.747434079647064209e-02
1.218648478388786316e-01
3.878797218203544617e-02
3.325552865862846375e-02
1.298460271209478378e-02
2.115397900342941284e-02
2.402145601809024811e-02
-1.201257854700088501e-01
3.328514695167541504e-01
-2.749045751988887787e-02
1.993297785520553589e-02
2.079487740993499756e-01
2.595486640930175781e-01
2.068882994353771210e-02
2.657915949821472168e-01
-4.114161492907442153e-05
4.729309305548667908e-02
1.145875230431556702e-01
1.578793525695800781e-01
1.740489900112152100e-01
3.548304736614227295e-02
-3.839997202157974243e-02
-9.647097438573837280e-03
2.891137450933456421e-02
-1.007352769374847412e-02
3.360968232154846191e-01
3.835801035165786743e-03
5.513618141412734985e-02
1.579503566026687622e-01
2.674830146133899689e-02
1.452854871749877930e-01
1.731792837381362915e-01
2.910264432430267334e-01
2.018922567367553711e-01
2.058352828025817871e-01
2.091644108295440674e-01
9.573200717568397522e-03
1.683781296014785767e-01
3.785471618175506592e-01
-1.853621564805507660e-02
9.539519250392913818e-02
2.399348840117454529e-02
3.877776861190795898e-01
-1.315621286630630493e-01
4.868050292134284973e-02
3.075456321239471436e-01
4.453784599900245667e-02
1.133802905678749084e-01
4.094362631440162659e-02
2.537625432014465332e-01
1.318781524896621704e-01
1.472243107855319977e-02
2.129686474800109863e-01
1.066181063652038574e-01
1.813529729843139648e-01
1.842364817857742310e-01
2.913620173931121826e-01
2.275650575757026672e-02
1.553554236888885498e-01
-1.435606777667999268e-01
6.580329686403274536e-02
2.882763743400573730e-01
2.264790534973144531e-01
-8.090995252132415771e-02
2.120790332555770874e-01
-2.331063896417617798e-02
2.121224701404571533e-01
5.781672149896621704e-02
4.012571275234222412e-02
6.223700195550918579e-02
-7.051928434520959854e-03
-1.127319503575563431e-02
-1.298097311519086361e-03
1.581287384033203125e-01
-1.330730170011520386e-01
2.027743905782699585e-01
2.570379525423049927e-02
1.567017734050750732e-01
9.703873842954635620e-02
4.275396466255187988e-02
7.638034224510192871e-02
1.038517057895660400e-01
1.199764683842658997e-01
7.499686628580093384e-02
4.362427815794944763e-02
1.328087151050567627e-01
7.061917334794998169e-02
2.273975610733032227e-01
2.246300503611564636e-02
-4.308262094855308533e-02
-4.489563405513763428e-02
-2.573682228103280067e-03
1.904417644254863262e-03
-3.841481357812881470e-02
-1.061247196048498154e-02
-3.081157244741916656e-02
-4.603045806288719177e-02
-3.045487776398658752e-02
1.801756396889686584e-02
-7.297167181968688965e-02
-4.077592864632606506e-02
-5.668012052774429321e-02
2.637648768723011017e-02
-7.752588391304016113e-02
-2.476912178099155426e-02
1.097314059734344482e-02
-7.860007882118225098e-02
-2.729809097945690155e-02
-4.293149337172508240e-02
-6.453263014554977417e-02
4.786398634314537048e-02
-8.988624811172485352e-02
6.445974111557006836e-03
2.122840657830238342e-02
-1.052532810717821121e-02
4.504977166652679443e-02
-2.828921005129814148e-02
-1.387794315814971924e-01
3.637554496526718140e-02
-6.779371201992034912e-02
-6.880425661802291870e-02
-1.260538995265960693e-01
-8.295860141515731812e-02
-5.485325306653976440e-02
-7.100923359394073486e-02
-5.371873453259468079e-02
-4.641876090317964554e-03
-1.003825739026069641e-01
-2.440246380865573883e-02
-6.025369092822074890e-02
-4.123119264841079712e-02
-3.107692301273345947e-02
1.104301074519753456e-03
4.816879704594612122e-02
-9.716538339853286743e-02
-7.839339971542358398e-02
-2.192667499184608459e-02
1.051297597587108612e-02
-1.058824881911277771e-01
2.935861796140670776e-02
-6.901564449071884155e-02
-9.849467873573303223e-02
-9.669245779514312744e-02
1.394082047045230865e-02
-4.970649024471640587e-05
-7.016894966363906860e-02
-8.536715060472488403e-02
-7.539403438568115234e-02
3.104645572602748871e-02
-5.250339396297931671e-03
-9.428149461746215820e-02
3.438704833388328552e-02
2.353208698332309723e-02
1.472825882956385612e-03
-6.845296360552310944e-03
3.064574114978313446e-02
2.852645888924598694e-02
4.122074693441390991e-02
-1.829054951667785645e-02
-5.106788128614425659e-03
-2.891997247934341431e-02
3.714916855096817017e-02
-4.147975891828536987e-02
-2.783018164336681366e-02
-5.037790164351463318e-02
-7.339004427194595337e-02
6.917724013328552246e-02
-6.082508340477943420e-02
2.731210738420486450e-02
-4.908971861004829407e-02
1.040336564183235168e-01
-9.746708720922470093e-02
3.270778805017471313e-03
1.625691503286361694e-01
4.811808094382286072e-02
7.446835516020655632e-04
3.679926320910453796e-02
-1.872381195425987244e-02
1.812953501939773560e-02
-8.846011012792587280e-03
2.468294091522693634e-02
1.366563327610492706e-02
6.564746145159006119e-03
-3.474075719714164734e-02
-9.834320098161697388e-02
-5.802020058035850525e-02
4.714530368801206350e-04
3.138443920761346817e-03
3.005607426166534424e-02
-9.429485350847244263e-02
-1.538063026964664459e-02
1.828960515558719635e-02
-9.815635532140731812e-02
8.547452837228775024e-02
-1.005017533898353577e-01
5.186923779547214508e-03
-3.265079110860824585e-02
-9.840032458305358887e-02
-9.577254205942153931e-02
1.416932232677936554e-02
-1.644494980573654175e-01
-1.400732062757015228e-02
4.073798656463623047e-02
1.883802376687526703e-02
-4.390621930360794067e-02
-9.125144779682159424e-02
-9.364129602909088135e-02
6.873413175344467163e-02
2.175074256956577301e-02
-6.448213011026382446e-02
-2.874430269002914429e-02
-1.244619116187095642e-02
-8.122594445012509823e-04
-4.911570996046066284e-02
-2.180354446172714233e-01
3.749419748783111572e-02
-8.921871893107891083e-03
1.395058818161487579e-02
-1.656858809292316437e-02
8.745080977678298950e-02
4.692572727799415588e-02
-5.708513036370277405e-02
-8.498965762555599213e-03
-1.030069589614868164e-01
2.649675682187080383e-02
2.742785774171352386e-02
2.803669124841690063e-02
-6.872501224279403687e-02
3.175544738769531250e-02
-1.047303676605224609e-01
-6.649579852819442749e-02
-2.572076581418514252e-02
-7.450470328330993652e-02
-1.167585998773574829e-01
-3.636121517047286034e-03
-1.566306129097938538e-02
1.087605673819780350e-02
-4.850741475820541382e-02
-1.896932907402515411e-02
5.731105804443359375e-02
8.927662670612335205e-02
-6.938059628009796143e-02
-2.105343341827392578e-02
-6.217624619603157043e-02
-8.657783269882202148e-03
-4.196683317422866821e-02
-7.835739850997924805e-02
-6.940221786499023438e-02
-7.866074889898300171e-02
6.993660330772399902e-02
-3.338816389441490173e-02
-8.062791079282760620e-02
2.486034668982028961e-02
-1.574801281094551086e-02
3.339055925607681274e-02
-1.211499497294425964e-01
-3.095138259232044220e-02
2.549917995929718018e-02
3.768461942672729492e-02
-6.715808063745498657e-02
-4.898048192262649536e-02
-8.185011148452758789e-02
-9.655056148767471313e-02
5.097141489386558533e-02
1.444524060934782028e-02
9.778456389904022217e-02
-2.358128689229488373e-02
-1.437455862760543823e-01
-1.008409485220909119e-01
5.008082836866378784e-03
4.662843793630599976e-02
-1.101358607411384583e-01
1.346139423549175262e-02
-6.841241568326950073e-02
-2.711850777268409729e-02
5.406603217124938965e-02
-7.187028229236602783e-02
-3.795171901583671570e-02
-1.200840622186660767e-01
-7.602407783269882202e-02
-7.755355536937713623e-02
5.795474350452423096e-02
-1.154155209660530090e-01
-3.547410294413566589e-02
-7.788561284542083740e-02
-7.293757051229476929e-03
-1.981574809178709984e-03
1.496464945375919342e-02
