0.000000000000000000e+00
2.442146688699722290e-01
2.926257848739624023e-01
3.223781883716583252e-01
0.000000000000000000e+00
-3.369149863719940186e-01
-7.951928273541852832e-05
-1.016220971941947937e-01
0.000000000000000000e+00
6.196451839059591293e-03
-4.671778678894042969e-01
1.466324478387832642e-01
8.562693744897842407e-02
6.305548548698425293e-02
7.880999892950057983e-02
7.474225014448165894e-02
-2.619871171191334724e-03
-1.164063885807991028e-01
0.000000000000000000e+00
-1.446243971586227417e-01
0.000000000000000000e+00
1.891966909170150757e-01
8.575344085693359375e-02
0.000000000000000000e+00
-2.685198560357093811e-03
-6.743020564317703247e-02
-5.437654852867126465e-01
2.317206561565399170e-01
1.576531231403350830e-01
2.182434685528278351e-02
-1.964988261461257935e-01
1.785201728343963623e-01
5.819545313715934753e-02
-4.832779765129089355e-01
6.852146238088607788e-03
1.767626851797103882e-01
-3.381269276142120361e-01
0.000000000000000000e+00
-3.100198879837989807e-02
2.935664653778076172e-01
0.000000000000000000e+00
1.558562219142913818e-01
-3.548261821269989014e-01
0.000000000000000000e+00
1.612013727426528931e-01
1.887711733579635620e-01
-1.261134743690490723e-01
-1.723787337541580200e-01
-7.651470899581909180e-01
2.966323401778936386e-03
1.610228121280670166e-01
1.034802347421646118e-01
0.000000000000000000e+00
1.081789061427116394e-01
-2.896493077278137207e-01
3.734778510988689959e-05
2.097075283527374268e-01
0.000000000000000000e+00
1.552854478359222412e-01
0.000000000000000000e+00
-1.625335812568664551e-01
-8.161425590515136719e-02
1.649951189756393433e-02
-3.434700071811676025e-01
6.164006888866424561e-03
1.910464763641357422e-01
2.224991470575332642e-01
-2.895031496882438660e-02
-2.863902151584625244e-01
9.038946777582168579e-02
1.390858441591262817e-01
-3.829794824123382568e-01
-7.063371539115905762e-01
-1.942478036198735936e-07
3.634592592716217041e-01
8.998937159776687622e-02
1.583117544651031494e-01
2.215716813225299120e-04
-1.945878751575946808e-02
0.000000000000000000e+00
-1.003160886466503143e-02
1.212817709892988205e-02
0.000000000000000000e+00
0.000000000000000000e+00
1.236697286367416382e-01
-2.940443456172943115e-01
8.268030360341072083e-03
1.025411067530512810e-03
9.480079752393066883e-04
1.384941488504409790e-01
1.239524499396793544e-05
0.000000000000000000e+00
-6.393127888441085815e-02
-3.410750068724155426e-03
0.000000000000000000e+00
-1.376141160726547241e-01
-7.708127051591873169e-02
0.000000000000000000e+00
0.000000000000000000e+00
3.463281393051147461e-01
2.947768270969390869e-01
-4.557531774044036865e-01
-3.800588548183441162e-01
0.000000000000000000e+00
-1.102983057498931885e-01
-1.900809444487094879e-02
9.417355060577392578e-02
4.628755450248718262e-01
3.238847851753234863e-02
0.000000000000000000e+00
7.382534444332122803e-02
1.585444658994674683e-01
0.000000000000000000e+00
1.632969677448272705e-01
0.000000000000000000e+00
1.448192913085222244e-02
-7.214795053005218506e-02
2.089808583259582520e-01
3.603425920009613037e-01
0.000000000000000000e+00
1.148019134998321533e-01
7.972074300050735474e-02
7.638140767812728882e-02
2.940322458744049072e-01
2.342306226491928101e-01
2.508381009101867676e-01
0.000000000000000000e+00
2.599445879459381104e-01
-6.832841038703918457e-02
0.000000000000000000e+00
-4.340130835771560669e-04
2.589122653007507324e-01
2.016183584928512573e-01
0.000000000000000000e+00
-7.689517922699451447e-03
-3.006908518727868795e-04
-5.456975661218166351e-03
0.000000000000000000e+00
3.042166233062744141e-01
1.624177326448261738e-03
3.407994983717799187e-03
-2.603246131911873817e-03
2.142096608877182007e-01
1.168832741677761078e-02
3.368040919303894043e-01
8.479741401970386505e-03
-6.415305137634277344e-01
-5.559853091835975647e-02
-4.741141200065612793e-01
0.000000000000000000e+00
1.946579962968826294e-01
-5.188487768173217773e-01
1.178726106882095337e-01
-5.964286997914314270e-02
-9.709519892930984497e-02
-1.221269965171813965e-01
1.713628080324269831e-05
3.900241553783416748e-01
2.705173194408416748e-01
1.472459584474563599e-01
-1.246004998683929443e-01
2.066504061222076416e-01
0.000000000000000000e+00
-1.428270637989044189e-01
5.328763741999864578e-03
1.444705277681350708e-01
2.050159275531768799e-01
-4.204344749450683594e-01
-3.878010436892509460e-02
2.674588374793529510e-02
1.890317499637603760e-01
1.416722238063812256e-01
-1.703256219625473022e-01
7.353004068136215210e-02
1.471837908029556274e-01
1.198377385735511780e-01
1.722738612443208694e-03
-4.113459587097167969e-02
5.041011050343513489e-02
-6.511850655078887939e-02
-9.905510395765304565e-02
-1.913268566131591797e-01
2.188780605792999268e-01
3.165484070777893066e-01
6.303929723799228668e-03
-1.008687540888786316e-01
-2.196378409862518311e-01
-3.626286685466766357e-01
3.322455286979675293e-01
-1.716935783624649048e-01
-2.355769574642181396e-01
0.000000000000000000e+00
5.131175369024276733e-02
-8.383966684341430664e-01
0.000000000000000000e+00
4.123260825872421265e-02
-4.329668581485748291e-01
3.380503654479980469e-01
-1.318543702363967896e-01
1.319196657277643681e-03
0.000000000000000000e+00
-5.228552967309951782e-02
7.614430785179138184e-02
-2.939938008785247803e-02
0.000000000000000000e+00
1.673026531934738159e-01
-8.723239297978579998e-04
6.146088615059852600e-02
0.000000000000000000e+00
1.031206175684928894e-01
-3.329323604702949524e-02
1.156595200300216675e-01
5.109441652894020081e-02
2.017191499471664429e-01
3.141748160123825073e-02
6.829829514026641846e-02
-2.575148642063140869e-02
-1.412200182676315308e-01
0.000000000000000000e+00
1.397820264101028442e-01
0.000000000000000000e+00
3.032238781452178955e-01
-1.305502504110336304e-01
0.000000000000000000e+00
-8.241514675319194794e-03
-3.151352982968091965e-03
-4.672927781939506531e-02
-1.097889021039009094e-01
1.094493567943572998e-01
9.152913093566894531e-02
1.477224826812744141e-01
-1.053665801882743835e-01
1.264897584915161133e-01
1.774683892726898193e-01
-1.516008470207452774e-02
-8.457354269921779633e-03
2.327865175902843475e-02
0.000000000000000000e+00
-5.597969517111778259e-03
7.017206400632858276e-02
0.000000000000000000e+00
9.365904331207275391e-02
1.913612633943557739e-01
0.000000000000000000e+00
-7.948789000511169434e-02
1.082632243633270264e-01
1.305436193943023682e-01
-1.137579884380102158e-02
-1.319874078035354614e-01
-1.152195129543542862e-02
-8.276596665382385254e-02
-8.011045306921005249e-02
0.000000000000000000e+00
2.821073681116104126e-02
-7.206202484667301178e-03
-5.127449403516948223e-04
1.614202111959457397e-01
0.000000000000000000e+00
2.732526361942291260e-01
0.000000000000000000e+00
1.459347736090421677e-02
-6.667248904705047607e-02
-1.457978971302509308e-02
-2.309721559286117554e-01
-1.303866785019636154e-02
1.000595390796661377e-01
1.718333065509796143e-01
1.301005333662033081e-01
-1.357676684856414795e-01
-2.255444601178169250e-02
1.061483174562454224e-01
-1.557627767324447632e-01
-1.337721645832061768e-01
-4.722304583992809057e-04
-4.203512519598007202e-02
1.745027154684066772e-01
-4.472598433494567871e-02
-1.326957158744335175e-02
-2.875085920095443726e-02
0.000000000000000000e+00
-1.058696396648883820e-02
9.463138133287429810e-02
0.000000000000000000e+00
0.000000000000000000e+00
1.714614033699035645e-01
1.705240271985530853e-02
-2.303637564182281494e-02
-1.413490436971187592e-02
-1.739320531487464905e-02
7.987639307975769043e-02
-1.444774097763001919e-04
0.000000000000000000e+00
-2.268130630254745483e-01
-8.287295699119567871e-03
0.000000000000000000e+00
9.148004651069641113e-02
2.576099475845694542e-03
0.000000000000000000e+00
0.000000000000000000e+00
1.969995200634002686e-01
9.144887328147888184e-02
-2.380598522722721100e-02
4.738522693514823914e-02
0.000000000000000000e+00
-9.095925837755203247e-02
-1.601380705833435059e-01
1.474553197622299194e-01
-4.225388541817665100e-02
6.545006483793258667e-02
0.000000000000000000e+00
-7.871088385581970215e-02
-2.367339469492435455e-02
0.000000000000000000e+00
1.633396893739700317e-01
0.000000000000000000e+00
-1.680479384958744049e-02
5.321324244141578674e-02
1.679451167583465576e-01
8.207168430089950562e-02
0.000000000000000000e+00
1.906778365373611450e-01
1.800782382488250732e-01
-2.337623089551925659e-01
6.028979271650314331e-02
-9.912124276161193848e-02
1.862265318632125854e-01
0.000000000000000000e+00
-2.003915607929229736e-02
1.149685680866241455e-02
0.000000000000000000e+00
-7.999594090506434441e-04
1.051570251584053040e-01
4.275676980614662170e-02
0.000000000000000000e+00
-1.752473786473274231e-02
-6.510588340461254120e-03
-1.706790295429527760e-03
0.000000000000000000e+00
9.527927637100219727e-02
-8.147699758410453796e-03
-1.752682588994503021e-02
-6.414330564439296722e-03
-6.290136277675628662e-02
5.284430831670761108e-02
7.775663584470748901e-02
2.165620774030685425e-02
7.314771413803100586e-02
2.871293202042579651e-02
-1.185658499598503113e-01
0.000000000000000000e+00
-7.820571959018707275e-02
1.000208221375942230e-02
1.976825892925262451e-01
4.832681268453598022e-02
2.569550648331642151e-02
-1.049871519207954407e-01
-3.622533113230019808e-04
1.605426818132400513e-01
-6.014177575707435608e-02
-2.510077357292175293e-01
4.087068736553192139e-01
-2.842541597783565521e-02
0.000000000000000000e+00
4.554544016718864441e-02
-2.327645430341362953e-03
8.241968601942062378e-02
2.870401367545127869e-03
-4.256957396864891052e-02
-2.915728092193603516e-02
8.188636600971221924e-02
2.725073695182800293e-01
-1.402765810489654541e-01
-1.281222105026245117e-01
9.473054856061935425e-02
1.195805240422487259e-02
1.084255203604698181e-01
-1.221505273133516312e-02
2.168441265821456909e-01
1.347824633121490479e-01
-6.983055919408798218e-02
-5.720945820212364197e-02
6.637562811374664307e-02
-3.982943296432495117e-02
9.729619324207305908e-02
-3.539919108152389526e-02
-1.793498247861862183e-01
5.068335309624671936e-02
2.573949098587036133e-01
-1.169061064720153809e-01
4.464881122112274170e-02
-1.018876060843467712e-01
0.000000000000000000e+00
2.430475316941738129e-02
5.861446633934974670e-02
0.000000000000000000e+00
2.183045148849487305e-01
-3.721208870410919189e-02
1.867998093366622925e-01
2.360816001892089844e-01
-5.995664279907941818e-03
0.000000000000000000e+00
-6.438921391963958740e-02
-9.938412159681320190e-02
-6.620127707719802856e-02
0.000000000000000000e+00
2.550351805984973907e-02
-1.031817123293876648e-02
-4.152192547917366028e-02
0.000000000000000000e+00
1.280780788511037827e-02
2.233383618295192719e-02
-8.786300569772720337e-02
-1.762258261442184448e-02
1.221114620566368103e-01
-1.099916845560073853e-01
2.391045987606048584e-01
-1.451644673943519592e-02
8.606980741024017334e-02
0.000000000000000000e+00
-2.059764564037322998e-01
0.000000000000000000e+00
-2.261705249547958374e-01
-1.454414576292037964e-01
0.000000000000000000e+00
-1.239347271621227264e-02
1.064819470047950745e-01
-5.668098479509353638e-02
-1.571258306503295898e-01
1.698266863822937012e-01
-1.020486354827880859e-01
-1.940770745277404785e-01
-4.722396656870841980e-02
-2.214190065860748291e-01
1.960926800966262817e-01
-6.569958757609128952e-03
-1.164694130420684814e-01
9.411265701055526733e-02
0.000000000000000000e+00
-1.132025495171546936e-01
-2.569612860679626465e-02
0.000000000000000000e+00
-5.763979628682136536e-03
-5.034841969609260559e-02
0.000000000000000000e+00
-5.338994413614273071e-02
1.328487247228622437e-01
-2.282407730817794800e-01
1.576900295913219452e-02
-2.381565421819686890e-02
-5.863952916115522385e-03
5.520982295274734497e-02
6.625948101282119751e-02
0.000000000000000000e+00
-9.420868754386901855e-02
-7.940082252025604248e-02
-2.308990620076656342e-02
-2.760348021984100342e-01
0.000000000000000000e+00
-3.360387086868286133e-01
0.000000000000000000e+00
2.884378843009471893e-02
2.784301713109016418e-02
6.551658734679222107e-03
-2.148483693599700928e-01
-1.657760702073574066e-02
-7.239457219839096069e-02
-3.199739456176757812e-01
1.227776929736137390e-01
1.416552662849426270e-01
1.243150830268859863e-01
9.151551127433776855e-02
-5.080247763544321060e-03
-3.125567734241485596e-02
-6.613602396100759506e-03
-9.462888538837432861e-02
-1.992980092763900757e-01
-1.305889338254928589e-01
-1.813901029527187347e-02
-2.509793266654014587e-02
0.000000000000000000e+00
-2.201169915497303009e-02
-6.623715162277221680e-02
0.000000000000000000e+00
0.000000000000000000e+00
-1.314386129379272461e-01
2.327863872051239014e-02
-1.594650559127330780e-02
-2.502721920609474182e-02
-1.122421305626630783e-02
-2.366849184036254883e-01
-3.646669210866093636e-03
0.000000000000000000e+00
2.871636115014553070e-02
-9.489290416240692139e-02
0.000000000000000000e+00
-2.195368856191635132e-01
9.378675371408462524e-02
0.000000000000000000e+00
0.000000000000000000e+00
-2.635427713394165039e-01
-1.751951575279235840e-01
2.297240542247891426e-03
-1.609714776277542114e-01
0.000000000000000000e+00
1.266215592622756958e-01
-3.065223805606365204e-02
-1.530019044876098633e-01
-1.742329001426696777e-01
-6.616578251123428345e-02
0.000000000000000000e+00
-1.117449253797531128e-01
-3.826623037457466125e-02
0.000000000000000000e+00
-1.809859871864318848e-01
0.000000000000000000e+00
-4.552592337131500244e-02
-5.742263421416282654e-02
-2.190639525651931763e-01
-1.222407817840576172e-01
0.000000000000000000e+00
2.265313826501369476e-02
-2.161155641078948975e-01
2.638875739648938179e-03
-1.906678266823291779e-02
-5.166934058070182800e-02
-1.328901201486587524e-01
0.000000000000000000e+00
-1.639704704284667969e-01
5.694720149040222168e-02
0.000000000000000000e+00
-2.642717678099870682e-03
-1.392544507980346680e-01
-1.355473399162292480e-01
0.000000000000000000e+00
-7.772035151720046997e-02
-1.444299053400754929e-02
-4.913207376375794411e-04
0.000000000000000000e+00
-7.744387537240982056e-02
-3.613343287725001574e-04
-2.148230187594890594e-02
-7.829773239791393280e-03
-5.777401849627494812e-02
-1.486884206533432007e-01
-2.412327975034713745e-01
-5.594266578555107117e-02
-2.542596496641635895e-02
1.647077351808547974e-01
1.129214316606521606e-01
0.000000000000000000e+00
-3.245928511023521423e-02
-4.359714314341545105e-02
-2.162683308124542236e-01
-8.857346326112747192e-02
5.162753909826278687e-02
2.340505830943584442e-03
-1.017769053578376770e-02
-1.894833594560623169e-01
3.924726694822311401e-02
-4.005362465977668762e-02
-2.536067068576812744e-01
1.329536288976669312e-01
0.000000000000000000e+00
-1.426914930343627930e-01
-2.642813371494412422e-03
-2.553265690803527832e-01
-8.596833050251007080e-02
-1.330683082342147827e-01
-7.241971045732498169e-02
1.132730767130851746e-01
-3.148627579212188721e-01
-5.296060815453529358e-02
-5.319279432296752930e-02
-4.998809099197387695e-02
-2.382030040025711060e-01
-1.480102539062500000e-01
-2.373006567358970642e-02
-1.429442018270492554e-01
-6.553559005260467529e-02
6.505461037158966064e-02
9.274719655513763428e-02
2.442270815372467041e-01
-6.846985220909118652e-02
-2.472619414329528809e-01
-2.395979166030883789e-01
-4.368765279650688171e-03
-2.576810866594314575e-02
-2.081110030412673950e-01
-5.845456942915916443e-02
4.448801279067993164e-02
2.902323566377162933e-02
0.000000000000000000e+00
-1.220947206020355225e-01
2.023256570100784302e-01
0.000000000000000000e+00
-1.977289915084838867e-01
1.761477887630462646e-01
-2.570658922195434570e-01
8.359400182962417603e-02
-2.845738641917705536e-02
0.000000000000000000e+00
2.442146688699722290e-01
2.926257848739624023e-01
3.223781883716583252e-01
0.000000000000000000e+00
-3.369149863719940186e-01
-7.951928273541852832e-05
-1.016220971941947937e-01
0.000000000000000000e+00
6.196451839059591293e-03
-4.671778678894042969e-01
1.466324478387832642e-01
8.562693744897842407e-02
6.305548548698425293e-02
7.880999892950057983e-02
7.474225014448165894e-02
-2.619871171191334724e-03
-1.164063885807991028e-01
0.000000000000000000e+00
-1.446243971586227417e-01
0.000000000000000000e+00
1.891966909170150757e-01
8.575344085693359375e-02
0.000000000000000000e+00
-2.685198560357093811e-03
-6.743020564317703247e-02
-5.437654852867126465e-01
2.317206561565399170e-01
1.576531231403350830e-01
2.182434685528278351e-02
-1.964988261461257935e-01
1.785201728343963623e-01
5.819545313715934753e-02
-4.832779765129089355e-01
6.852146238088607788e-03
1.767626851797103882e-01
-3.381269276142120361e-01
0.000000000000000000e+00
-3.100198879837989807e-02
2.935664653778076172e-01
0.000000000000000000e+00
1.558562219142913818e-01
-3.548261821269989014e-01
0.000000000000000000e+00
1.612013727426528931e-01
1.887711733579635620e-01
-1.261134743690490723e-01
-1.723787337541580200e-01
-7.651470899581909180e-01
2.966323401778936386e-03
1.610228121280670166e-01
1.034802347421646118e-01
0.000000000000000000e+00
1.081789061427116394e-01
-2.896493077278137207e-01
3.734778510988689959e-05
2.097075283527374268e-01
0.000000000000000000e+00
1.552854478359222412e-01
0.000000000000000000e+00
-1.625335812568664551e-01
-8.161425590515136719e-02
1.649951189756393433e-02
-3.434700071811676025e-01
6.164006888866424561e-03
1.910464763641357422e-01
2.224991470575332642e-01
-2.895031496882438660e-02
-2.863902151584625244e-01
9.038946777582168579e-02
1.390858441591262817e-01
-3.829794824123382568e-01
-7.063371539115905762e-01
-1.942478036198735936e-07
3.634592592716217041e-01
8.998937159776687622e-02
1.583117544651031494e-01
2.215716813225299120e-04
-1.945878751575946808e-02
0.000000000000000000e+00
-1.003160886466503143e-02
1.212817709892988205e-02
0.000000000000000000e+00
0.000000000000000000e+00
1.236697286367416382e-01
-2.940443456172943115e-01
8.268030360341072083e-03
1.025411067530512810e-03
9.480079752393066883e-04
1.384941488504409790e-01
1.239524499396793544e-05
0.000000000000000000e+00
-6.393127888441085815e-02
-3.410750068724155426e-03
0.000000000000000000e+00
-1.376141160726547241e-01
-7.708127051591873169e-02
0.000000000000000000e+00
0.000000000000000000e+00
3.463281393051147461e-01
2.947768270969390869e-01
-4.557531774044036865e-01
-3.800588548183441162e-01
0.000000000000000000e+00
-1.102983057498931885e-01
-1.900809444487094879e-02
9.417355060577392578e-02
4.628755450248718262e-01
3.238847851753234863e-02
0.000000000000000000e+00
7.382534444332122803e-02
1.585444658994674683e-01
0.000000000000000000e+00
1.632969677448272705e-01
0.000000000000000000e+00
1.448192913085222244e-02
-7.214795053005218506e-02
2.089808583259582520e-01
3.603425920009613037e-01
0.000000000000000000e+00
1.148019134998321533e-01
7.972074300050735474e-02
7.638140767812728882e-02
2.940322458744049072e-01
2.342306226491928101e-01
2.508381009101867676e-01
0.000000000000000000e+00
2.599445879459381104e-01
-6.832841038703918457e-02
0.000000000000000000e+00
-4.340130835771560669e-04
2.589122653007507324e-01
2.016183584928512573e-01
0.000000000000000000e+00
-7.689517922699451447e-03
-3.006908518727868795e-04
-5.456975661218166351e-03
0.000000000000000000e+00
3.042166233062744141e-01
1.624177326448261738e-03
3.407994983717799187e-03
-2.603246131911873817e-03
2.142096608877182007e-01
1.168832741677761078e-02
3.368040919303894043e-01
8.479741401970386505e-03
-6.415305137634277344e-01
-5.559853091835975647e-02
-4.741141200065612793e-01
0.000000000000000000e+00
1.946579962968826294e-01
-5.188487768173217773e-01
1.178726106882095337e-01
-5.964286997914314270e-02
-9.709519892930984497e-02
-1.221269965171813965e-01
1.713628080324269831e-05
3.900241553783416748e-01
2.705173194408416748e-01
1.472459584474563599e-01
-1.246004998683929443e-01
2.066504061222076416e-01
0.000000000000000000e+00
-1.428270637989044189e-01
5.328763741999864578e-03
1.444705277681350708e-01
2.050159275531768799e-01
-4.204344749450683594e-01
-3.878010436892509460e-02
2.674588374793529510e-02
1.890317499637603760e-01
1.416722238063812256e-01
-1.703256219625473022e-01
7.353004068136215210e-02
1.471837908029556274e-01
1.198377385735511780e-01
1.722738612443208694e-03
-4.113459587097167969e-02
5.041011050343513489e-02
-6.511850655078887939e-02
-9.905510395765304565e-02
-1.913268566131591797e-01
2.188780605792999268e-01
3.165484070777893066e-01
6.303929723799228668e-03
-1.008687540888786316e-01
-2.196378409862518311e-01
-3.626286685466766357e-01
3.322455286979675293e-01
-1.716935783624649048e-01
-2.355769574642181396e-01
0.000000000000000000e+00
5.131175369024276733e-02
-8.383966684341430664e-01
0.000000000000000000e+00
4.123260825872421265e-02
-4.329668581485748291e-01
3.380503654479980469e-01
-1.318543702363967896e-01
1.319196657277643681e-03
0.000000000000000000e+00
-5.228552967309951782e-02
7.614430785179138184e-02
-2.939938008785247803e-02
0.000000000000000000e+00
1.673026531934738159e-01
-8.723239297978579998e-04
6.146088615059852600e-02
0.000000000000000000e+00
1.031206175684928894e-01
-3.329323604702949524e-02
1.156595200300216675e-01
5.109441652894020081e-02
2.017191499471664429e-01
3.141748160123825073e-02
6.829829514026641846e-02
-2.575148642063140869e-02
-1.412200182676315308e-01
0.000000000000000000e+00
1.397820264101028442e-01
0.000000000000000000e+00
3.032238781452178955e-01
-1.305502504110336304e-01
0.000000000000000000e+00
-8.241514675319194794e-03
-3.151352982968091965e-03
-4.672927781939506531e-02
-1.097889021039009094e-01
1.094493567943572998e-01
9.152913093566894531e-02
1.477224826812744141e-01
-1.053665801882743835e-01
1.264897584915161133e-01
1.774683892726898193e-01
-1.516008470207452774e-02
-8.457354269921779633e-03
2.327865175902843475e-02
0.000000000000000000e+00
-5.597969517111778259e-03
7.017206400632858276e-02
0.000000000000000000e+00
9.365904331207275391e-02
1.913612633943557739e-01
0.000000000000000000e+00
-7.948789000511169434e-02
1.082632243633270264e-01
1.305436193943023682e-01
-1.137579884380102158e-02
-1.319874078035354614e-01
-1.152195129543542862e-02
-8.276596665382385254e-02
-8.011045306921005249e-02
0.000000000000000000e+00
2.821073681116104126e-02
-7.206202484667301178e-03
-5.127449403516948223e-04
1.614202111959457397e-01
0.000000000000000000e+00
2.732526361942291260e-01
0.000000000000000000e+00
1.459347736090421677e-02
-6.667248904705047607e-02
-1.457978971302509308e-02
-2.309721559286117554e-01
-1.303866785019636154e-02
1.000595390796661377e-01
1.718333065509796143e-01
1.301005333662033081e-01
-1.357676684856414795e-01
-2.255444601178169250e-02
1.061483174562454224e-01
-1.557627767324447632e-01
-1.337721645832061768e-01
-4.722304583992809057e-04
-4.203512519598007202e-02
1.745027154684066772e-01
-4.472598433494567871e-02
-1.326957158744335175e-02
-2.875085920095443726e-02
0.000000000000000000e+00
-1.058696396648883820e-02
9.463138133287429810e-02
0.000000000000000000e+00
0.000000000000000000e+00
1.714614033699035645e-01
1.705240271985530853e-02
-2.303637564182281494e-02
-1.413490436971187592e-02
-1.739320531487464905e-02
7.987639307975769043e-02
-1.444774097763001919e-04
0.000000000000000000e+00
-2.268130630254745483e-01
-8.287295699119567871e-03
0.000000000000000000e+00
9.148004651069641113e-02
2.576099475845694542e-03
0.000000000000000000e+00
0.000000000000000000e+00
1.969995200634002686e-01
9.144887328147888184e-02
-2.380598522722721100e-02
4.738522693514823914e-02
0.000000000000000000e+00
-9.095925837755203247e-02
-1.601380705833435059e-01
1.474553197622299194e-01
-4.225388541817665100e-02
6.545006483793258667e-02
0.000000000000000000e+00
-7.871088385581970215e-02
-2.367339469492435455e-02
0.000000000000000000e+00
1.633396893739700317e-01
0.000000000000000000e+00
-1.680479384958744049e-02
5.321324244141578674e-02
1.679451167583465576e-01
8.207168430089950562e-02
0.000000000000000000e+00
1.906778365373611450e-01
1.800782382488250732e-01
-2.337623089551925659e-01
6.028979271650314331e-02
-9.912124276161193848e-02
1.862265318632125854e-01
0.000000000000000000e+00
-2.003915607929229736e-02
1.149685680866241455e-02
0.000000000000000000e+00
-7.999594090506434441e-04
1.051570251584053040e-01
4.275676980614662170e-02
0.000000000000000000e+00
-1.752473786473274231e-02
-6.510588340461254120e-03
-1.706790295429527760e-03
0.000000000000000000e+00
9.527927637100219727e-02
-8.147699758410453796e-03
-1.752682588994503021e-02
-6.414330564439296722e-03
-6.290136277675628662e-02
5.284430831670761108e-02
7.775663584470748901e-02
2.165620774030685425e-02
7.314771413803100586e-02
2.871293202042579651e-02
-1.185658499598503113e-01
0.000000000000000000e+00
-7.820571959018707275e-02
1.000208221375942230e-02
1.976825892925262451e-01
4.832681268453598022e-02
2.569550648331642151e-02
-1.049871519207954407e-01
-3.622533113230019808e-04
1.605426818132400513e-01
-6.014177575707435608e-02
-2.510077357292175293e-01
4.087068736553192139e-01
-2.842541597783565521e-02
0.000000000000000000e+00
4.554544016718864441e-02
-2.327645430341362953e-03
8.241968601942062378e-02
2.870401367545127869e-03
-4.256957396864891052e-02
-2.915728092193603516e-02
8.188636600971221924e-02
2.725073695182800293e-01
-1.402765810489654541e-01
-1.281222105026245117e-01
9.473054856061935425e-02
1.195805240422487259e-02
1.084255203604698181e-01
-1.221505273133516312e-02
2.168441265821456909e-01
1.347824633121490479e-01
-6.983055919408798218e-02
-5.720945820212364197e-02
6.637562811374664307e-02
-3.982943296432495117e-02
9.729619324207305908e-02
-3.539919108152389526e-02
-1.793498247861862183e-01
5.068335309624671936e-02
2.573949098587036133e-01
-1.169061064720153809e-01
4.464881122112274170e-02
-1.018876060843467712e-01
0.000000000000000000e+00
2.430475316941738129e-02
5.861446633934974670e-02
0.000000000000000000e+00
2.183045148849487305e-01
-3.721208870410919189e-02
1.867998093366622925e-01
2.360816001892089844e-01
-5.995664279907941818e-03
0.000000000000000000e+00
-3.462589159607887268e-02
-4.863844439387321472e-02
-3.862024471163749695e-02
0.000000000000000000e+00
-3.809882560744881630e-03
-6.314044818282127380e-03
-5.596787482500076294e-02
0.000000000000000000e+00
5.584200099110603333e-02
2.086015651002526283e-03
-1.450411975383758545e-01
1.440330892801284790e-01
1.311896294355392456e-01
-7.182490080595016479e-02
2.292310297489166260e-01
-1.939990930259227753e-02
5.994264781475067139e-02
0.000000000000000000e+00
-2.664254307746887207e-01
0.000000000000000000e+00
-2.431063950061798096e-01
-3.927184268832206726e-02
0.000000000000000000e+00
-1.211396884173154831e-02
7.212398946285247803e-02
-7.617751602083444595e-03
-1.221659481525421143e-01
1.841018050909042358e-01
-2.807710766792297363e-01
-1.659183055162429810e-01
-1.923842728137969971e-02
-2.758938074111938477e-01
3.704938292503356934e-01
-7.639841176569461823e-03
-1.376764029264450073e-01
1.029450222849845886e-01
0.000000000000000000e+00
-9.931283444166183472e-02
-3.292094543576240540e-02
0.000000000000000000e+00
-1.521463692188262939e-01
-1.210258081555366516e-01
0.000000000000000000e+00
-3.457870334386825562e-03
1.457059681415557861e-01
-2.465929687023162842e-01
5.918595567345619202e-02
-2.856472693383693695e-02
-1.132029946893453598e-02
7.827132940292358398e-02
1.210696920752525330e-01
0.000000000000000000e+00
-1.775242388248443604e-01
3.356543555855751038e-02
-1.749333739280700684e-02
-2.467110157012939453e-01
0.000000000000000000e+00
-2.826510667800903320e-01
0.000000000000000000e+00
2.412265725433826447e-02
3.951304033398628235e-02
-2.488566969987004995e-04
-1.457081437110900879e-01
-1.426423806697130203e-02
-7.146273553371429443e-02
-3.638377189636230469e-01
1.305783540010452271e-01
9.384176880121231079e-02
4.993985593318939209e-02
7.319065928459167480e-02
-2.124596759676933289e-02
-5.578633025288581848e-02
-3.389631398022174835e-03
-7.190933823585510254e-02
-3.914193212985992432e-01
-1.338797658681869507e-01
-1.784915290772914886e-02
-3.092517331242561340e-02
0.000000000000000000e+00
-2.000284008681774139e-02
-2.342189252376556396e-01
0.000000000000000000e+00
0.000000000000000000e+00
-1.228385791182518005e-01
9.255643188953399658e-02
-1.700083166360855103e-02
-2.431382238864898682e-02
-1.274409610778093338e-02
-2.438469231128692627e-01
-1.972769154235720634e-03
0.000000000000000000e+00
-5.684154480695724487e-02
-6.803220510482788086e-02
0.000000000000000000e+00
-1.556123942136764526e-01
5.056340619921684265e-02
0.000000000000000000e+00
0.000000000000000000e+00
-2.334291934967041016e-01
-1.892038881778717041e-01
-4.331211373209953308e-02
-1.602675765752792358e-01
0.000000000000000000e+00
1.016567498445510864e-01
-3.407973796129226685e-02
2.777889184653759003e-02
-1.555223464965820312e-01
-6.980355083942413330e-02
0.000000000000000000e+00
-8.154404908418655396e-02
-1.784026506356894970e-03
0.000000000000000000e+00
-1.833139955997467041e-01
0.000000000000000000e+00
-3.301862999796867371e-02
-1.590308696031570435e-01
-1.718444079160690308e-01
-9.152348339557647705e-02
0.000000000000000000e+00
1.734866388142108917e-02
-1.707568615674972534e-01
-6.716919597238302231e-03
-8.415799587965011597e-03
-2.128295600414276123e-02
-1.344165951013565063e-01
0.000000000000000000e+00
-2.276039421558380127e-01
1.927006244659423828e-02
0.000000000000000000e+00
-2.441124292090535164e-03
-2.068749815225601196e-01
-1.257954090833663940e-01
0.000000000000000000e+00
-7.566972076892852783e-02
-1.250675134360790253e-02
-9.723652037791907787e-04
0.000000000000000000e+00
-5.641828104853630066e-02
-3.468684735707938671e-04
-2.126876078546047211e-02
-8.016077801585197449e-03
-3.682716935873031616e-02
-1.040064394474029541e-01
-2.339279055595397949e-01
-3.919054195284843445e-02
-6.752332299947738647e-02
1.391206979751586914e-01
1.046432778239250183e-01
0.000000000000000000e+00
-4.080154001712799072e-03
-2.174740582704544067e-01
-4.145813286304473877e-01
-7.440260052680969238e-02
4.724889993667602539e-02
-1.512418035417795181e-02
-6.065867841243743896e-03
-1.668248772621154785e-01
9.813811630010604858e-03
-2.728934772312641144e-02
-2.490299195051193237e-01
6.176580861210823059e-02
0.000000000000000000e+00
-1.521739065647125244e-01
-2.839995082467794418e-03
-2.145513445138931274e-01
-1.562464088201522827e-01
-9.780852496623992920e-02
-6.523866951465606689e-02
1.222455948591232300e-01
-3.040337562561035156e-01
-2.765089087188243866e-02
-6.784065812826156616e-02
-3.639176860451698303e-02
-2.078042626380920410e-01
-1.553374826908111572e-01
-2.424673363566398621e-02
-1.541000902652740479e-01
-1.792120486497879028e-01
6.792853772640228271e-02
5.428780615329742432e-02
2.079079598188400269e-01
9.107918594963848591e-04
-1.947015970945358276e-01
-1.916481703519821167e-01
3.033880144357681274e-02
-2.928977645933628082e-02
-2.015135139226913452e-01
-3.154099732637405396e-02
2.463288791477680206e-02
1.693861372768878937e-02
0.000000000000000000e+00
-2.025401145219802856e-01
2.401563078165054321e-01
0.000000000000000000e+00
-2.119170129299163818e-01
1.258561760187149048e-01
-3.161829411983489990e-01
3.738250434398651123e-01
-2.523786015808582306e-02
